Language model created by QuickLM on Sun May 21 06:15:40 EDT 2017
Copyright (c) 1996-2010 Carnegie Mellon University and Alexander I. Rudnicky

The model is in standard ARPA format, designed by Doug Paul while he was at MITRE.

The code that was used to produce this language model is available in Open Source.
Please visit http://www.speech.cs.cmu.edu/tools/ for more information

The (fixed) discount mass is 0.5. The backoffs are computed using the ratio method.
This model based on a corpus of 9 sentences and 35 words

\data\
ngram 1=35
ngram 2=49
ngram 3=46

\1-grams:
-1.1980 </s> -0.3010
-1.1980 <s> -0.2693
-1.4533 A -0.2855
-2.1523 ARE -0.2855
-2.1523 BRISBANE -0.2726
-2.1523 CALL -0.2855
-2.1523 CAN -0.2949
-2.1523 CAR -0.2918
-2.1523 EGG -0.2980
-2.1523 FRIED -0.2980
-1.8513 HOUSE -0.2918
-1.3741 HOW -0.2791
-1.8513 I -0.2918
-1.6752 IN -0.2918
-2.1523 IS -0.2980
-2.1523 LOT -0.2980
-2.1523 MAKE -0.2980
-2.1523 MELBOURNE -0.2726
-2.1523 OF -0.2980
-2.1523 OWN -0.2855
-1.8513 PAY -0.2949
-1.8513 RENT -0.2855
-2.1523 RICE -0.2726
-2.1523 SYDNEY -0.2726
-2.1523 TAX -0.2726
-2.1523 TAXES -0.2726
-2.1523 TAXI -0.2726
-2.1523 TAXIS -0.2726
-2.1523 THE -0.2980
-2.1523 THERE -0.2980
-1.3741 TO -0.2791
-2.1523 TODAY -0.2726
-2.1523 WANT -0.2823
-2.1523 WEATHER -0.2980
-2.1523 WHAT -0.2980

\2-grams:
-0.4771 <s> HOW 0.0000
-1.2553 <s> I -0.1761
-1.2553 <s> THERE 0.0000
-1.2553 <s> WHAT 0.0000
-1.0000 A CAR 0.0000
-0.6990 A HOUSE 0.0000
-1.0000 A LOT 0.0000
-1.0000 A TAXI 0.0000
-0.3010 ARE A -0.2553
-0.3010 BRISBANE </s> -0.3010
-0.3010 CALL A -0.2553
-0.3010 CAN I -0.1761
-0.3010 CAR IN -0.2218
-0.3010 EGG FRIED 0.0000
-0.3010 FRIED RICE 0.0000
-0.3010 HOUSE IN -0.1249
-1.0792 HOW CAN 0.0000
-0.3802 HOW TO -0.0669
-0.6021 I PAY -0.1761
-0.6021 I WANT 0.0000
-0.7782 IN BRISBANE 0.0000
-0.7782 IN MELBOURNE 0.0000
-0.7782 IN SYDNEY 0.0000
-0.3010 IS THE 0.0000
-0.3010 LOT OF 0.0000
-0.3010 MAKE EGG 0.0000
-0.3010 MELBOURNE </s> -0.3010
-0.3010 OF TAXIS 0.0000
-0.3010 OWN A -0.2041
-0.6021 PAY TAX 0.0000
-0.6021 PAY TAXES 0.0000
-0.3010 RENT A -0.1461
-0.3010 RICE </s> -0.3010
-0.3010 SYDNEY </s> -0.3010
-0.3010 TAX </s> -0.3010
-0.3010 TAXES </s> -0.3010
-0.3010 TAXI </s> -0.3010
-0.3010 TAXIS </s> -0.3010
-0.3010 THE WEATHER 0.0000
-0.3010 THERE ARE 0.0000
-1.0792 TO CALL 0.0000
-1.0792 TO MAKE 0.0000
-1.0792 TO OWN 0.0000
-1.0792 TO PAY -0.1761
-0.7782 TO RENT 0.0000
-0.3010 TODAY </s> -0.3010
-0.3010 WANT TO -0.2632
-0.3010 WEATHER TODAY 0.0000
-0.3010 WHAT IS 0.0000

\3-grams:
-1.0792 <s> HOW CAN
-0.3802 <s> HOW TO
-0.3010 <s> I WANT
-0.3010 <s> THERE ARE
-0.3010 <s> WHAT IS
-0.3010 A CAR IN
-0.3010 A HOUSE IN
-0.3010 A LOT OF
-0.3010 A TAXI </s>
-0.3010 ARE A LOT
-0.3010 CALL A TAXI
-0.3010 CAN I PAY
-0.3010 CAR IN BRISBANE
-0.3010 EGG FRIED RICE
-0.3010 FRIED RICE </s>
-0.6021 HOUSE IN MELBOURNE
-0.6021 HOUSE IN SYDNEY
-0.3010 HOW CAN I
-1.0000 HOW TO MAKE
-1.0000 HOW TO OWN
-1.0000 HOW TO PAY
-0.6990 HOW TO RENT
-0.3010 I PAY TAX
-0.3010 I WANT TO
-0.3010 IN BRISBANE </s>
-0.3010 IN MELBOURNE </s>
-0.3010 IN SYDNEY </s>
-0.3010 IS THE WEATHER
-0.3010 LOT OF TAXIS
-0.3010 MAKE EGG FRIED
-0.3010 OF TAXIS </s>
-0.3010 OWN A HOUSE
-0.3010 PAY TAX </s>
-0.3010 PAY TAXES </s>
-0.6021 RENT A CAR
-0.6021 RENT A HOUSE
-0.3010 THE WEATHER TODAY
-0.3010 THERE ARE A
-0.3010 TO CALL A
-0.3010 TO MAKE EGG
-0.3010 TO OWN A
-0.3010 TO PAY TAXES
-0.3010 TO RENT A
-0.3010 WANT TO CALL
-0.3010 WEATHER TODAY </s>
-0.3010 WHAT IS THE

\end\
